<?xml version="1.0"?>
<opencv_storage>
<cascade-arrow-2011_5_13-22_36_41-24 type_id="opencv-haar-classifier">
  <size>
    12 16</size>
  <stages>
    <_>
      <!-- stage 0 -->
      <trees>
        <_>
          <!-- tree 0 -->
          <_>
            <!-- root node -->
            <feature>
              <rects>
                <_>
                  2 5 6 6 -1.</_>
                <_>
                  4 7 2 2 9.</_></rects>
              <tilted>0</tilted></feature>
            <threshold>-1.4878879487514496e-001</threshold>
            <left_val>8.3177071809768677e-001</left_val>
            <right_val>-7.1081721782684326e-001</right_val></_></_>
        <_>
          <!-- tree 1 -->
          <_>
            <!-- root node -->
            <feature>
              <rects>
                <_>
                  3 6 4 6 -1.</_>
                <_>
                  3 9 4 3 2.</_></rects>
              <tilted>0</tilted></feature>
            <threshold>2.5619339197874069e-002</threshold>
            <left_val>-6.7468988895416260e-001</left_val>
            <right_val>6.5538287162780762e-001</right_val></_></_>
        <_>
          <!-- tree 2 -->
          <_>
            <!-- root node -->
            <feature>
              <rects>
                <_>
                  1 5 9 7 -1.</_>
                <_>
                  4 5 3 7 3.</_></rects>
              <tilted>0</tilted></feature>
            <threshold>-3.1045230105519295e-002</threshold>
            <left_val>4.7553110122680664e-001</left_val>
            <right_val>-7.7492409944534302e-001</right_val></_></_>
        <_>
          <!-- tree 3 -->
          <_>
            <!-- root node -->
            <feature>
              <rects>
                <_>
                  6 4 2 3 -1.</_>
                <_>
                  5 5 2 1 3.</_></rects>
              <tilted>1</tilted></feature>
            <threshold>-1.4657270163297653e-002</threshold>
            <left_val>5.9550362825393677e-001</left_val>
            <right_val>-4.8917040228843689e-001</right_val></_></_>
        <_>
          <!-- tree 4 -->
          <_>
            <!-- root node -->
            <feature>
              <rects>
                <_>
                  0 0 12 16 -1.</_>
                <_>
                  0 8 12 8 2.</_></rects>
              <tilted>0</tilted></feature>
            <threshold>-2.0174190402030945e-001</threshold>
            <left_val>-5.8924591541290283e-001</left_val>
            <right_val>5.6236261129379272e-001</right_val></_></_>
        <_>
          <!-- tree 5 -->
          <_>
            <!-- root node -->
            <feature>
              <rects>
                <_>
                  5 6 2 5 -1.</_>
                <_>
                  6 6 1 5 2.</_></rects>
              <tilted>0</tilted></feature>
            <threshold>2.7261138893663883e-003</threshold>
            <left_val>-6.1892408132553101e-001</left_val>
            <right_val>3.4329789876937866e-001</right_val></_></_>
        <_>
          <!-- tree 6 -->
          <_>
            <!-- root node -->
            <feature>
              <rects>
                <_>
                  10 12 2 2 -1.</_>
                <_>
                  10 13 2 1 2.</_></rects>
              <tilted>0</tilted></feature>
            <threshold>-3.9219940663315356e-004</threshold>
            <left_val>-6.1128908395767212e-001</left_val>
            <right_val>3.9911401271820068e-001</right_val></_></_></trees>
      <stage_threshold>-2.1285851001739502e+000</stage_threshold>
      <parent>-1</parent>
      <next>-1</next></_>
    <_>
      <!-- stage 1 -->
      <trees>
        <_>
          <!-- tree 0 -->
          <_>
            <!-- root node -->
            <feature>
              <rects>
                <_>
                  1 6 9 3 -1.</_>
                <_>
                  4 7 3 1 9.</_></rects>
              <tilted>0</tilted></feature>
            <threshold>-1.2082859873771667e-001</threshold>
            <left_val>7.2365087270736694e-001</left_val>
            <right_val>-5.8925557136535645e-001</right_val></_></_>
        <_>
          <!-- tree 1 -->
          <_>
            <!-- root node -->
            <feature>
              <rects>
                <_>
                  3 4 4 8 -1.</_>
                <_>
                  3 6 4 4 2.</_></rects>
              <tilted>0</tilted></feature>
            <threshold>-3.9544481784105301e-002</threshold>
            <left_val>4.8530220985412598e-001</left_val>
            <right_val>-5.5880701541900635e-001</right_val></_></_>
        <_>
          <!-- tree 2 -->
          <_>
            <!-- root node -->
            <feature>
              <rects>
                <_>
                  0 0 6 11 -1.</_>
                <_>
                  2 0 2 11 3.</_></rects>
              <tilted>0</tilted></feature>
            <threshold>6.6000178456306458e-002</threshold>
            <left_val>-3.9109438657760620e-001</left_val>
            <right_val>5.8849138021469116e-001</right_val></_></_>
        <_>
          <!-- tree 3 -->
          <_>
            <!-- root node -->
            <feature>
              <rects>
                <_>
                  2 5 3 6 -1.</_>
                <_>
                  3 5 1 6 3.</_></rects>
              <tilted>0</tilted></feature>
            <threshold>-3.2248981297016144e-002</threshold>
            <left_val>9.0379387140274048e-001</left_val>
            <right_val>-2.7677449584007263e-001</right_val></_></_>
        <_>
          <!-- tree 4 -->
          <_>
            <!-- root node -->
            <feature>
              <rects>
                <_>
                  2 0 3 14 -1.</_>
                <_>
                  3 0 1 14 3.</_></rects>
              <tilted>0</tilted></feature>
            <threshold>3.4392349421977997e-002</threshold>
            <left_val>-3.4869030117988586e-001</left_val>
            <right_val>6.9323772192001343e-001</right_val></_></_>
        <_>
          <!-- tree 5 -->
          <_>
            <!-- root node -->
            <feature>
              <rects>
                <_>
                  2 6 4 1 -1.</_>
                <_>
                  3 6 2 1 2.</_></rects>
              <tilted>0</tilted></feature>
            <threshold>-9.5936441794037819e-003</threshold>
            <left_val>8.7981367111206055e-001</left_val>
            <right_val>-1.8490220606327057e-001</right_val></_></_>
        <_>
          <!-- tree 6 -->
          <_>
            <!-- root node -->
            <feature>
              <rects>
                <_>
                  6 4 4 3 -1.</_>
                <_>
                  5 5 4 1 3.</_></rects>
              <tilted>1</tilted></feature>
            <threshold>-4.4200189411640167e-002</threshold>
            <left_val>7.8477448225021362e-001</left_val>
            <right_val>-2.5677201151847839e-001</right_val></_></_>
        <_>
          <!-- tree 7 -->
          <_>
            <!-- root node -->
            <feature>
              <rects>
                <_>
                  1 5 3 6 -1.</_>
                <_>
                  2 5 1 6 3.</_></rects>
              <tilted>0</tilted></feature>
            <threshold>-4.6479981392621994e-002</threshold>
            <left_val>9.0395849943161011e-001</left_val>
            <right_val>-1.6939279437065125e-001</right_val></_></_>
        <_>
          <!-- tree 8 -->
          <_>
            <!-- root node -->
            <feature>
              <rects>
                <_>
                  7 1 1 2 -1.</_>
                <_>
                  7 2 1 1 2.</_></rects>
              <tilted>0</tilted></feature>
            <threshold>1.4816790644545108e-004</threshold>
            <left_val>3.2195660471916199e-001</left_val>
            <right_val>-5.8410638570785522e-001</right_val></_></_>
        <_>
          <!-- tree 9 -->
          <_>
            <!-- root node -->
            <feature>
              <rects>
                <_>
                  6 15 4 1 -1.</_>
                <_>
                  8 15 2 1 2.</_></rects>
              <tilted>0</tilted></feature>
            <threshold>-1.5164300566539168e-003</threshold>
            <left_val>-6.1728817224502563e-001</left_val>
            <right_val>2.6859080791473389e-001</right_val></_></_></trees>
      <stage_threshold>-1.2055560350418091e+000</stage_threshold>
      <parent>0</parent>
      <next>-1</next></_>
    <_>
      <!-- stage 2 -->
      <trees>
        <_>
          <!-- tree 0 -->
          <_>
            <!-- root node -->
            <feature>
              <rects>
                <_>
                  2 3 6 9 -1.</_>
                <_>
                  4 6 2 3 9.</_></rects>
              <tilted>0</tilted></feature>
            <threshold>-2.6717561483383179e-001</threshold>
            <left_val>6.1996978521347046e-001</left_val>
            <right_val>-6.1936080455780029e-001</right_val></_></_>
        <_>
          <!-- tree 1 -->
          <_>
            <!-- root node -->
            <feature>
              <rects>
                <_>
                  7 7 3 6 -1.</_>
                <_>
                  8 7 1 6 3.</_></rects>
              <tilted>0</tilted></feature>
            <threshold>1.0082219727337360e-002</threshold>
            <left_val>-3.9812570810317993e-001</left_val>
            <right_val>5.8731752634048462e-001</right_val></_></_>
        <_>
          <!-- tree 2 -->
          <_>
            <!-- root node -->
            <feature>
              <rects>
                <_>
                  6 5 4 5 -1.</_>
                <_>
                  6 5 2 5 2.</_></rects>
              <tilted>1</tilted></feature>
            <threshold>5.9919231571257114e-003</threshold>
            <left_val>2.8591269254684448e-001</left_val>
            <right_val>-6.9179219007492065e-001</right_val></_></_>
        <_>
          <!-- tree 3 -->
          <_>
            <!-- root node -->
            <feature>
              <rects>
                <_>
                  2 6 3 4 -1.</_>
                <_>
                  3 6 1 4 3.</_></rects>
              <tilted>0</tilted></feature>
            <threshold>-2.5956399738788605e-002</threshold>
            <left_val>7.7819502353668213e-001</left_val>
            <right_val>-2.5363340973854065e-001</right_val></_></_>
        <_>
          <!-- tree 4 -->
          <_>
            <!-- root node -->
            <feature>
              <rects>
                <_>
                  5 4 1 3 -1.</_>
                <_>
                  5 5 1 1 3.</_></rects>
              <tilted>0</tilted></feature>
            <threshold>-4.2306859977543354e-003</threshold>
            <left_val>8.0757272243499756e-001</left_val>
            <right_val>-2.4210830032825470e-001</right_val></_></_>
        <_>
          <!-- tree 5 -->
          <_>
            <!-- root node -->
            <feature>
              <rects>
                <_>
                  7 3 3 3 -1.</_>
                <_>
                  6 4 3 1 3.</_></rects>
              <tilted>1</tilted></feature>
            <threshold>4.2423211038112640e-002</threshold>
            <left_val>-2.1003800630569458e-001</left_val>
            <right_val>8.7969410419464111e-001</right_val></_></_>
        <_>
          <!-- tree 6 -->
          <_>
            <!-- root node -->
            <feature>
              <rects>
                <_>
                  4 3 2 2 -1.</_>
                <_>
                  4 3 1 1 2.</_>
                <_>
                  5 4 1 1 2.</_></rects>
              <tilted>0</tilted></feature>
            <threshold>-3.3848979510366917e-003</threshold>
            <left_val>7.0204198360443115e-001</left_val>
            <right_val>-2.1952800452709198e-001</right_val></_></_>
        <_>
          <!-- tree 7 -->
          <_>
            <!-- root node -->
            <feature>
              <rects>
                <_>
                  5 10 3 3 -1.</_>
                <_>
                  6 10 1 3 3.</_></rects>
              <tilted>0</tilted></feature>
            <threshold>6.7376629449427128e-003</threshold>
            <left_val>-2.8440371155738831e-001</left_val>
            <right_val>5.4459029436111450e-001</right_val></_></_>
        <_>
          <!-- tree 8 -->
          <_>
            <!-- root node -->
            <feature>
              <rects>
                <_>
                  10 11 2 5 -1.</_>
                <_>
                  11 11 1 5 2.</_></rects>
              <tilted>0</tilted></feature>
            <threshold>-4.1812029667198658e-003</threshold>
            <left_val>-6.1307698488235474e-001</left_val>
            <right_val>2.5446680188179016e-001</right_val></_></_>
        <_>
          <!-- tree 9 -->
          <_>
            <!-- root node -->
            <feature>
              <rects>
                <_>
                  1 4 4 4 -1.</_>
                <_>
                  2 4 2 4 2.</_></rects>
              <tilted>0</tilted></feature>
            <threshold>3.8438081741333008e-002</threshold>
            <left_val>-2.2828960418701172e-001</left_val>
            <right_val>6.8308287858963013e-001</right_val></_></_>
        <_>
          <!-- tree 10 -->
          <_>
            <!-- root node -->
            <feature>
              <rects>
                <_>
                  4 6 3 3 -1.</_>
                <_>
                  5 7 1 1 9.</_></rects>
              <tilted>0</tilted></feature>
            <threshold>-1.3197669759392738e-002</threshold>
            <left_val>3.9517030119895935e-001</left_val>
            <right_val>-3.8972660899162292e-001</right_val></_></_>
        <_>
          <!-- tree 11 -->
          <_>
            <!-- root node -->
            <feature>
              <rects>
                <_>
                  2 10 3 3 -1.</_>
                <_>
                  2 11 3 1 3.</_></rects>
              <tilted>0</tilted></feature>
            <threshold>3.6232490092515945e-003</threshold>
            <left_val>-3.5401290655136108e-001</left_val>
            <right_val>5.2546721696853638e-001</right_val></_></_>
        <_>
          <!-- tree 12 -->
          <_>
            <!-- root node -->
            <feature>
              <rects>
                <_>
                  1 5 3 4 -1.</_>
                <_>
                  2 5 1 4 3.</_></rects>
              <tilted>0</tilted></feature>
            <threshold>-3.3570058643817902e-002</threshold>
            <left_val>8.0523467063903809e-001</left_val>
            <right_val>-1.8909490108489990e-001</right_val></_></_></trees>
      <stage_threshold>-1.2340509891510010e+000</stage_threshold>
      <parent>1</parent>
      <next>-1</next></_>
    <_>
      <!-- stage 3 -->
      <trees>
        <_>
          <!-- tree 0 -->
          <_>
            <!-- root node -->
            <feature>
              <rects>
                <_>
                  4 2 2 8 -1.</_>
                <_>
                  4 6 2 4 2.</_></rects>
              <tilted>0</tilted></feature>
            <threshold>-4.4555959175340831e-004</threshold>
            <left_val>5.4257112741470337e-001</left_val>
            <right_val>-8.1934589147567749e-001</right_val></_></_>
        <_>
          <!-- tree 1 -->
          <_>
            <!-- root node -->
            <feature>
              <rects>
                <_>
                  4 12 4 2 -1.</_>
                <_>
                  4 12 2 1 2.</_>
                <_>
                  6 13 2 1 2.</_></rects>
              <tilted>0</tilted></feature>
            <threshold>1.8449299968779087e-003</threshold>
            <left_val>-4.1641569137573242e-001</left_val>
            <right_val>7.1880471706390381e-001</right_val></_></_>
        <_>
          <!-- tree 2 -->
          <_>
            <!-- root node -->
            <feature>
              <rects>
                <_>
                  2 6 4 7 -1.</_>
                <_>
                  4 6 2 7 2.</_></rects>
              <tilted>0</tilted></feature>
            <threshold>-6.1415550298988819e-003</threshold>
            <left_val>3.9795491099357605e-001</left_val>
            <right_val>-7.8208661079406738e-001</right_val></_></_>
        <_>
          <!-- tree 3 -->
          <_>
            <!-- root node -->
            <feature>
              <rects>
                <_>
                  5 5 2 2 -1.</_>
                <_>
                  5 5 1 1 2.</_>
                <_>
                  6 6 1 1 2.</_></rects>
              <tilted>0</tilted></feature>
            <threshold>-4.5217419974505901e-003</threshold>
            <left_val>8.8939791917800903e-001</left_val>
            <right_val>-3.0534368753433228e-001</right_val></_></_>
        <_>
          <!-- tree 4 -->
          <_>
            <!-- root node -->
            <feature>
              <rects>
                <_>
                  5 6 4 2 -1.</_>
                <_>
                  5 6 2 1 2.</_>
                <_>
                  7 7 2 1 2.</_></rects>
              <tilted>0</tilted></feature>
            <threshold>8.2657169550657272e-003</threshold>
            <left_val>-3.0337598919868469e-001</left_val>
            <right_val>7.0600062608718872e-001</right_val></_></_>
        <_>
          <!-- tree 5 -->
          <_>
            <!-- root node -->
            <feature>
              <rects>
                <_>
                  5 2 6 4 -1.</_>
                <_>
                  7 4 2 4 3.</_></rects>
              <tilted>1</tilted></feature>
            <threshold>-2.5433261180296540e-004</threshold>
            <left_val>2.1867020428180695e-001</left_val>
            <right_val>-9.5218020677566528e-001</right_val></_></_>
        <_>
          <!-- tree 6 -->
          <_>
            <!-- root node -->
            <feature>
              <rects>
                <_>
                  4 0 7 3 -1.</_>
                <_>
                  3 1 7 1 3.</_></rects>
              <tilted>1</tilted></feature>
            <threshold>-5.7934280484914780e-002</threshold>
            <left_val>8.8740491867065430e-001</left_val>
            <right_val>-3.2064989209175110e-001</right_val></_></_>
        <_>
          <!-- tree 7 -->
          <_>
            <!-- root node -->
            <feature>
              <rects>
                <_>
                  4 10 3 2 -1.</_>
                <_>
                  5 10 1 2 3.</_></rects>
              <tilted>0</tilted></feature>
            <threshold>6.1775729991495609e-003</threshold>
            <left_val>-1.9427759945392609e-001</left_val>
            <right_val>8.0351692438125610e-001</right_val></_></_>
        <_>
          <!-- tree 8 -->
          <_>
            <!-- root node -->
            <feature>
              <rects>
                <_>
                  5 9 2 2 -1.</_>
                <_>
                  5 9 1 1 2.</_>
                <_>
                  6 10 1 1 2.</_></rects>
              <tilted>0</tilted></feature>
            <threshold>1.4844130491837859e-003</threshold>
            <left_val>-3.6260819435119629e-001</left_val>
            <right_val>7.6304107904434204e-001</right_val></_></_>
        <_>
          <!-- tree 9 -->
          <_>
            <!-- root node -->
            <feature>
              <rects>
                <_>
                  4 8 2 2 -1.</_>
                <_>
                  4 9 2 1 2.</_></rects>
              <tilted>0</tilted></feature>
            <threshold>5.1659830205608159e-005</threshold>
            <left_val>-7.8320592641830444e-001</left_val>
            <right_val>3.7936991453170776e-001</right_val></_></_>
        <_>
          <!-- tree 10 -->
          <_>
            <!-- root node -->
            <feature>
              <rects>
                <_>
                  6 3 4 3 -1.</_>
                <_>
                  7 4 2 3 2.</_></rects>
              <tilted>1</tilted></feature>
            <threshold>-2.5728860055096447e-004</threshold>
            <left_val>2.0322029292583466e-001</left_val>
            <right_val>-9.1349178552627563e-001</right_val></_></_>
        <_>
          <!-- tree 11 -->
          <_>
            <!-- root node -->
            <feature>
              <rects>
                <_>
                  8 2 3 12 -1.</_>
                <_>
                  8 8 3 6 2.</_></rects>
              <tilted>0</tilted></feature>
            <threshold>-2.1108149085193872e-003</threshold>
            <left_val>6.6903239488601685e-001</left_val>
            <right_val>-5.0991827249526978e-001</right_val></_></_>
        <_>
          <!-- tree 12 -->
          <_>
            <!-- root node -->
            <feature>
              <rects>
                <_>
                  11 0 1 6 -1.</_>
                <_>
                  9 2 1 2 3.</_></rects>
              <tilted>1</tilted></feature>
            <threshold>-7.2794762672856450e-004</threshold>
            <left_val>7.1483659744262695e-001</left_val>
            <right_val>-4.1518241167068481e-001</right_val></_></_></trees>
      <stage_threshold>-1.5067119598388672e+000</stage_threshold>
      <parent>2</parent>
      <next>-1</next></_>
    <_>
      <!-- stage 4 -->
      <trees>
        <_>
          <!-- tree 0 -->
          <_>
            <!-- root node -->
            <feature>
              <rects>
                <_>
                  6 4 3 4 -1.</_>
                <_>
                  5 5 3 2 2.</_></rects>
              <tilted>1</tilted></feature>
            <threshold>-6.4347706735134125e-002</threshold>
            <left_val>6.4026272296905518e-001</left_val>
            <right_val>-3.5324800014495850e-001</right_val></_></_>
        <_>
          <!-- tree 1 -->
          <_>
            <!-- root node -->
            <feature>
              <rects>
                <_>
                  6 3 3 3 -1.</_>
                <_>
                  5 4 3 1 3.</_></rects>
              <tilted>1</tilted></feature>
            <threshold>-5.5005729198455811e-002</threshold>
            <left_val>7.7526408433914185e-001</left_val>
            <right_val>-2.0362010598182678e-001</right_val></_></_>
        <_>
          <!-- tree 2 -->
          <_>
            <!-- root node -->
            <feature>
              <rects>
                <_>
                  2 4 3 8 -1.</_>
                <_>
                  3 4 1 8 3.</_></rects>
              <tilted>0</tilted></feature>
            <threshold>-4.6116430312395096e-002</threshold>
            <left_val>8.2037639617919922e-001</left_val>
            <right_val>-2.1518270671367645e-001</right_val></_></_>
        <_>
          <!-- tree 3 -->
          <_>
            <!-- root node -->
            <feature>
              <rects>
                <_>
                  2 3 3 11 -1.</_>
                <_>
                  3 3 1 11 3.</_></rects>
              <tilted>0</tilted></feature>
            <threshold>7.6855659484863281e-002</threshold>
            <left_val>-1.3477219641208649e-001</left_val>
            <right_val>8.7626868486404419e-001</right_val></_></_>
        <_>
          <!-- tree 4 -->
          <_>
            <!-- root node -->
            <feature>
              <rects>
                <_>
                  2 5 2 3 -1.</_>
                <_>
                  2 6 2 1 3.</_></rects>
              <tilted>0</tilted></feature>
            <threshold>2.1280250512063503e-003</threshold>
            <left_val>2.9282251000404358e-001</left_val>
            <right_val>-6.0192769765853882e-001</right_val></_></_>
        <_>
          <!-- tree 5 -->
          <_>
            <!-- root node -->
            <feature>
              <rects>
                <_>
                  11 2 1 8 -1.</_>
                <_>
                  11 6 1 4 2.</_></rects>
              <tilted>0</tilted></feature>
            <threshold>4.3659731745719910e-003</threshold>
            <left_val>2.9092928767204285e-001</left_val>
            <right_val>-4.5879578590393066e-001</right_val></_></_>
        <_>
          <!-- tree 6 -->
          <_>
            <!-- root node -->
            <feature>
              <rects>
                <_>
                  5 3 2 2 -1.</_>
                <_>
                  5 3 1 1 2.</_>
                <_>
                  6 4 1 1 2.</_></rects>
              <tilted>0</tilted></feature>
            <threshold>-9.8591328423935920e-005</threshold>
            <left_val>4.4337078928947449e-001</left_val>
            <right_val>-3.4124949574470520e-001</right_val></_></_>
        <_>
          <!-- tree 7 -->
          <_>
            <!-- root node -->
            <feature>
              <rects>
                <_>
                  5 3 2 1 -1.</_>
                <_>
                  6 3 1 1 2.</_></rects>
              <tilted>0</tilted></feature>
            <threshold>-9.2211848823353648e-005</threshold>
            <left_val>4.1182920336723328e-001</left_val>
            <right_val>-3.6229631304740906e-001</right_val></_></_>
        <_>
          <!-- tree 8 -->
          <_>
            <!-- root node -->
            <feature>
              <rects>
                <_>
                  4 5 4 2 -1.</_>
                <_>
                  4 5 2 1 2.</_>
                <_>
                  6 6 2 1 2.</_></rects>
              <tilted>0</tilted></feature>
            <threshold>-5.2164518274366856e-003</threshold>
            <left_val>6.4966732263565063e-001</left_val>
            <right_val>-2.2488379478454590e-001</right_val></_></_>
        <_>
          <!-- tree 9 -->
          <_>
            <!-- root node -->
            <feature>
              <rects>
                <_>
                  4 4 2 2 -1.</_>
                <_>
                  4 4 1 1 2.</_>
                <_>
                  5 5 1 1 2.</_></rects>
              <tilted>0</tilted></feature>
            <threshold>7.2379321791231632e-003</threshold>
            <left_val>-1.3446520268917084e-001</left_val>
            <right_val>8.9020031690597534e-001</right_val></_></_>
        <_>
          <!-- tree 10 -->
          <_>
            <!-- root node -->
            <feature>
              <rects>
                <_>
                  10 1 2 7 -1.</_>
                <_>
                  11 1 1 7 2.</_></rects>
              <tilted>0</tilted></feature>
            <threshold>-3.6243470385670662e-003</threshold>
            <left_val>-4.9720031023025513e-001</left_val>
            <right_val>3.1547918915748596e-001</right_val></_></_>
        <_>
          <!-- tree 11 -->
          <_>
            <!-- root node -->
            <feature>
              <rects>
                <_>
                  6 10 2 2 -1.</_>
                <_>
                  6 10 1 1 2.</_>
                <_>
                  7 11 1 1 2.</_></rects>
              <tilted>0</tilted></feature>
            <threshold>-5.3850021213293076e-003</threshold>
            <left_val>6.8591791391372681e-001</left_val>
            <right_val>-1.9602410495281219e-001</right_val></_></_>
        <_>
          <!-- tree 12 -->
          <_>
            <!-- root node -->
            <feature>
              <rects>
                <_>
                  3 3 3 2 -1.</_>
                <_>
                  3 4 3 1 2.</_></rects>
              <tilted>0</tilted></feature>
            <threshold>-6.6456650383770466e-003</threshold>
            <left_val>5.1376289129257202e-001</left_val>
            <right_val>-2.7036389708518982e-001</right_val></_></_>
        <_>
          <!-- tree 13 -->
          <_>
            <!-- root node -->
            <feature>
              <rects>
                <_>
                  8 8 1 3 -1.</_>
                <_>
                  8 9 1 1 3.</_></rects>
              <tilted>0</tilted></feature>
            <threshold>5.9341802261769772e-003</threshold>
            <left_val>-1.7835320532321930e-001</left_val>
            <right_val>6.6421848535537720e-001</right_val></_></_>
        <_>
          <!-- tree 14 -->
          <_>
            <!-- root node -->
            <feature>
              <rects>
                <_>
                  10 12 2 4 -1.</_>
                <_>
                  11 12 1 4 2.</_></rects>
              <tilted>0</tilted></feature>
            <threshold>2.0392290316522121e-003</threshold>
            <left_val>3.2160589098930359e-001</left_val>
            <right_val>-4.1687500476837158e-001</right_val></_></_>
        <_>
          <!-- tree 15 -->
          <_>
            <!-- root node -->
            <feature>
              <rects>
                <_>
                  1 3 8 1 -1.</_>
                <_>
                  1 3 4 1 2.</_></rects>
              <tilted>1</tilted></feature>
            <threshold>-3.6290299147367477e-002</threshold>
            <left_val>-7.0472908020019531e-001</left_val>
            <right_val>1.6090449690818787e-001</right_val></_></_></trees>
      <stage_threshold>-1.2491840124130249e+000</stage_threshold>
      <parent>3</parent>
      <next>-1</next></_>
    <_>
      <!-- stage 5 -->
      <trees>
        <_>
          <!-- tree 0 -->
          <_>
            <!-- root node -->
            <feature>
              <rects>
                <_>
                  4 4 2 2 -1.</_>
                <_>
                  5 4 1 2 2.</_></rects>
              <tilted>0</tilted></feature>
            <threshold>3.3019171096384525e-003</threshold>
            <left_val>-3.9313769340515137e-001</left_val>
            <right_val>5.7849669456481934e-001</right_val></_></_>
        <_>
          <!-- tree 1 -->
          <_>
            <!-- root node -->
            <feature>
              <rects>
                <_>
                  1 5 3 5 -1.</_>
                <_>
                  2 5 1 5 3.</_></rects>
              <tilted>0</tilted></feature>
            <threshold>4.1624750941991806e-002</threshold>
            <left_val>-2.2453109920024872e-001</left_val>
            <right_val>7.8110152482986450e-001</right_val></_></_>
        <_>
          <!-- tree 2 -->
          <_>
            <!-- root node -->
            <feature>
              <rects>
                <_>
                  2 5 3 4 -1.</_>
                <_>
                  3 5 1 4 3.</_></rects>
              <tilted>0</tilted></feature>
            <threshold>3.6061178892850876e-002</threshold>
            <left_val>-2.2397309541702271e-001</left_val>
            <right_val>7.7205729484558105e-001</right_val></_></_>
        <_>
          <!-- tree 3 -->
          <_>
            <!-- root node -->
            <feature>
              <rects>
                <_>
                  5 5 2 6 -1.</_>
                <_>
                  5 7 2 2 3.</_></rects>
              <tilted>0</tilted></feature>
            <threshold>-3.0817320570349693e-002</threshold>
            <left_val>4.3063580989837646e-001</left_val>
            <right_val>-2.9602819681167603e-001</right_val></_></_>
        <_>
          <!-- tree 4 -->
          <_>
            <!-- root node -->
            <feature>
              <rects>
                <_>
                  7 6 2 2 -1.</_>
                <_>
                  7 6 1 1 2.</_>
                <_>
                  8 7 1 1 2.</_></rects>
              <tilted>0</tilted></feature>
            <threshold>-4.5833420008420944e-003</threshold>
            <left_val>6.5550392866134644e-001</left_val>
            <right_val>-2.1409240365028381e-001</right_val></_></_>
        <_>
          <!-- tree 5 -->
          <_>
            <!-- root node -->
            <feature>
              <rects>
                <_>
                  10 11 2 2 -1.</_>
                <_>
                  11 11 1 2 2.</_></rects>
              <tilted>0</tilted></feature>
            <threshold>-1.4321500202640891e-003</threshold>
            <left_val>-5.6766468286514282e-001</left_val>
            <right_val>2.8195270895957947e-001</right_val></_></_>
        <_>
          <!-- tree 6 -->
          <_>
            <!-- root node -->
            <feature>
              <rects>
                <_>
                  6 3 3 3 -1.</_>
                <_>
                  5 4 3 1 3.</_></rects>
              <tilted>1</tilted></feature>
            <threshold>-7.6545663177967072e-002</threshold>
            <left_val>8.7808328866958618e-001</left_val>
            <right_val>-1.8660819530487061e-001</right_val></_></_>
        <_>
          <!-- tree 7 -->
          <_>
            <!-- root node -->
            <feature>
              <rects>
                <_>
                  6 4 1 2 -1.</_>
                <_>
                  6 5 1 1 2.</_></rects>
              <tilted>0</tilted></feature>
            <threshold>1.0655749792931601e-004</threshold>
            <left_val>-3.1382998824119568e-001</left_val>
            <right_val>4.9182438850402832e-001</right_val></_></_>
        <_>
          <!-- tree 8 -->
          <_>
            <!-- root node -->
            <feature>
              <rects>
                <_>
                  2 5 3 1 -1.</_>
                <_>
                  3 5 1 1 3.</_></rects>
              <tilted>0</tilted></feature>
            <threshold>-5.2342647686600685e-003</threshold>
            <left_val>5.3431057929992676e-001</left_val>
            <right_val>-2.4131019413471222e-001</right_val></_></_>
        <_>
          <!-- tree 9 -->
          <_>
            <!-- root node -->
            <feature>
              <rects>
                <_>
                  0 2 8 12 -1.</_>
                <_>
                  0 6 8 4 3.</_></rects>
              <tilted>0</tilted></feature>
            <threshold>2.4864420294761658e-002</threshold>
            <left_val>2.1635319292545319e-001</left_val>
            <right_val>-6.5353119373321533e-001</right_val></_></_>
        <_>
          <!-- tree 10 -->
          <_>
            <!-- root node -->
            <feature>
              <rects>
                <_>
                  1 6 3 8 -1.</_>
                <_>
                  2 6 1 8 3.</_></rects>
              <tilted>0</tilted></feature>
            <threshold>-2.6316290721297264e-002</threshold>
            <left_val>7.4328321218490601e-001</left_val>
            <right_val>-2.1993079781532288e-001</right_val></_></_>
        <_>
          <!-- tree 11 -->
          <_>
            <!-- root node -->
            <feature>
              <rects>
                <_>
                  1 7 8 3 -1.</_>
                <_>
                  5 7 4 3 2.</_></rects>
              <tilted>0</tilted></feature>
            <threshold>5.7201590389013290e-002</threshold>
            <left_val>1.8993620574474335e-001</left_val>
            <right_val>-8.5154062509536743e-001</right_val></_></_>
        <_>
          <!-- tree 12 -->
          <_>
            <!-- root node -->
            <feature>
              <rects>
                <_>
                  5 9 3 3 -1.</_>
                <_>
                  6 9 1 3 3.</_></rects>
              <tilted>0</tilted></feature>
            <threshold>-1.6571849584579468e-002</threshold>
            <left_val>7.8850871324539185e-001</left_val>
            <right_val>-1.9415999948978424e-001</right_val></_></_>
        <_>
          <!-- tree 13 -->
          <_>
            <!-- root node -->
            <feature>
              <rects>
                <_>
                  6 4 1 4 -1.</_>
                <_>
                  6 5 1 2 2.</_></rects>
              <tilted>0</tilted></feature>
            <threshold>-6.5968451090157032e-003</threshold>
            <left_val>6.1681061983108521e-001</left_val>
            <right_val>-1.9032390415668488e-001</right_val></_></_>
        <_>
          <!-- tree 14 -->
          <_>
            <!-- root node -->
            <feature>
              <rects>
                <_>
                  3 13 1 2 -1.</_>
                <_>
                  3 13 1 1 2.</_></rects>
              <tilted>1</tilted></feature>
            <threshold>1.6315570101141930e-003</threshold>
            <left_val>2.7917578816413879e-001</left_val>
            <right_val>-4.9469909071922302e-001</right_val></_></_>
        <_>
          <!-- tree 15 -->
          <_>
            <!-- root node -->
            <feature>
              <rects>
                <_>
                  7 6 1 4 -1.</_>
                <_>
                  6 7 1 2 2.</_></rects>
              <tilted>1</tilted></feature>
            <threshold>-1.4402870088815689e-002</threshold>
            <left_val>3.7347909808158875e-001</left_val>
            <right_val>-3.1482121348381042e-001</right_val></_></_>
        <_>
          <!-- tree 16 -->
          <_>
            <!-- root node -->
            <feature>
              <rects>
                <_>
                  4 8 1 3 -1.</_>
                <_>
                  4 9 1 1 3.</_></rects>
              <tilted>0</tilted></feature>
            <threshold>4.3897149153053761e-003</threshold>
            <left_val>-2.2734929621219635e-001</left_val>
            <right_val>5.5115348100662231e-001</right_val></_></_>
        <_>
          <!-- tree 17 -->
          <_>
            <!-- root node -->
            <feature>
              <rects>
                <_>
                  5 2 2 1 -1.</_>
                <_>
                  5 2 1 1 2.</_></rects>
              <tilted>1</tilted></feature>
            <threshold>-3.1685980502516031e-003</threshold>
            <left_val>-6.2378162145614624e-001</left_val>
            <right_val>2.1539059281349182e-001</right_val></_></_>
        <_>
          <!-- tree 18 -->
          <_>
            <!-- root node -->
            <feature>
              <rects>
                <_>
                  4 11 3 1 -1.</_>
                <_>
                  5 11 1 1 3.</_></rects>
              <tilted>0</tilted></feature>
            <threshold>-9.3975225463509560e-003</threshold>
            <left_val>7.6380729675292969e-001</left_val>
            <right_val>-1.7958870530128479e-001</right_val></_></_></trees>
      <stage_threshold>-1.5102119445800781e+000</stage_threshold>
      <parent>4</parent>
      <next>-1</next></_>
    <_>
      <!-- stage 6 -->
      <trees>
        <_>
          <!-- tree 0 -->
          <_>
            <!-- root node -->
            <feature>
              <rects>
                <_>
                  5 7 4 3 -1.</_>
                <_>
                  7 7 2 3 2.</_></rects>
              <tilted>0</tilted></feature>
            <threshold>1.9976029172539711e-002</threshold>
            <left_val>-6.7395722866058350e-001</left_val>
            <right_val>3.2668718695640564e-001</right_val></_></_>
        <_>
          <!-- tree 1 -->
          <_>
            <!-- root node -->
            <feature>
              <rects>
                <_>
                  6 3 5 3 -1.</_>
                <_>
                  5 4 5 1 3.</_></rects>
              <tilted>1</tilted></feature>
            <threshold>-5.3990360349416733e-002</threshold>
            <left_val>7.0934700965881348e-001</left_val>
            <right_val>-2.4712879955768585e-001</right_val></_></_>
        <_>
          <!-- tree 2 -->
          <_>
            <!-- root node -->
            <feature>
              <rects>
                <_>
                  5 1 5 3 -1.</_>
                <_>
                  4 2 5 1 3.</_></rects>
              <tilted>1</tilted></feature>
            <threshold>6.7507930099964142e-002</threshold>
            <left_val>-2.1924230456352234e-001</left_val>
            <right_val>7.8911817073822021e-001</right_val></_></_>
        <_>
          <!-- tree 3 -->
          <_>
            <!-- root node -->
            <feature>
              <rects>
                <_>
                  3 0 2 1 -1.</_>
                <_>
                  4 0 1 1 2.</_></rects>
              <tilted>0</tilted></feature>
            <threshold>-6.0620991280302405e-004</threshold>
            <left_val>-4.8230248689651489e-001</left_val>
            <right_val>3.2590180635452271e-001</right_val></_></_>
        <_>
          <!-- tree 4 -->
          <_>
            <!-- root node -->
            <feature>
              <rects>
                <_>
                  6 5 2 2 -1.</_>
                <_>
                  6 5 1 1 2.</_>
                <_>
                  7 6 1 1 2.</_></rects>
              <tilted>0</tilted></feature>
            <threshold>-1.4626679476350546e-003</threshold>
            <left_val>5.9667271375656128e-001</left_val>
            <right_val>-2.3923429846763611e-001</right_val></_></_>
        <_>
          <!-- tree 5 -->
          <_>
            <!-- root node -->
            <feature>
              <rects>
                <_>
                  4 3 6 3 -1.</_>
                <_>
                  6 5 2 3 3.</_></rects>
              <tilted>1</tilted></feature>
            <threshold>-8.5784956812858582e-002</threshold>
            <left_val>2.7692660689353943e-001</left_val>
            <right_val>-5.3872191905975342e-001</right_val></_></_>
        <_>
          <!-- tree 6 -->
          <_>
            <!-- root node -->
            <feature>
              <rects>
                <_>
                  5 11 2 2 -1.</_>
                <_>
                  5 11 1 1 2.</_>
                <_>
                  6 12 1 1 2.</_></rects>
              <tilted>0</tilted></feature>
            <threshold>4.9251508899033070e-003</threshold>
            <left_val>-1.9384230673313141e-001</left_val>
            <right_val>7.7770161628723145e-001</right_val></_></_>
        <_>
          <!-- tree 7 -->
          <_>
            <!-- root node -->
            <feature>
              <rects>
                <_>
                  10 12 2 2 -1.</_>
                <_>
                  11 12 1 2 2.</_></rects>
              <tilted>0</tilted></feature>
            <threshold>-9.6707127522677183e-004</threshold>
            <left_val>-6.0093837976455688e-001</left_val>
            <right_val>2.3519790172576904e-001</right_val></_></_>
        <_>
          <!-- tree 8 -->
          <_>
            <!-- root node -->
            <feature>
              <rects>
                <_>
                  4 4 2 2 -1.</_>
                <_>
                  4 4 1 1 2.</_>
                <_>
                  5 5 1 1 2.</_></rects>
              <tilted>0</tilted></feature>
            <threshold>-4.5097079128026962e-003</threshold>
            <left_val>6.8198752403259277e-001</left_val>
            <right_val>-2.0367370545864105e-001</right_val></_></_>
        <_>
          <!-- tree 9 -->
          <_>
            <!-- root node -->
            <feature>
              <rects>
                <_>
                  5 2 5 3 -1.</_>
                <_>
                  4 3 5 1 3.</_></rects>
              <tilted>1</tilted></feature>
            <threshold>5.5777139961719513e-002</threshold>
            <left_val>-1.5836440026760101e-001</left_val>
            <right_val>7.8903102874755859e-001</right_val></_></_>
        <_>
          <!-- tree 10 -->
          <_>
            <!-- root node -->
            <feature>
              <rects>
                <_>
                  6 10 2 2 -1.</_>
                <_>
                  6 10 1 2 2.</_></rects>
              <tilted>1</tilted></feature>
            <threshold>1.1913070455193520e-002</threshold>
            <left_val>2.3166149854660034e-001</left_val>
            <right_val>-6.0458260774612427e-001</right_val></_></_>
        <_>
          <!-- tree 11 -->
          <_>
            <!-- root node -->
            <feature>
              <rects>
                <_>
                  0 11 1 3 -1.</_>
                <_>
                  0 12 1 1 3.</_></rects>
              <tilted>0</tilted></feature>
            <threshold>-8.9060672326013446e-004</threshold>
            <left_val>-5.4512679576873779e-001</left_val>
            <right_val>2.3925979435443878e-001</right_val></_></_>
        <_>
          <!-- tree 12 -->
          <_>
            <!-- root node -->
            <feature>
              <rects>
                <_>
                  5 6 2 2 -1.</_>
                <_>
                  5 6 1 1 2.</_>
                <_>
                  6 7 1 1 2.</_></rects>
              <tilted>0</tilted></feature>
            <threshold>-4.7950320877134800e-003</threshold>
            <left_val>7.1230721473693848e-001</left_val>
            <right_val>-2.2537399828433990e-001</right_val></_></_>
        <_>
          <!-- tree 13 -->
          <_>
            <!-- root node -->
            <feature>
              <rects>
                <_>
                  5 5 4 8 -1.</_>
                <_>
                  5 5 2 4 2.</_>
                <_>
                  7 9 2 4 2.</_></rects>
              <tilted>0</tilted></feature>
            <threshold>-1.6768809407949448e-002</threshold>
            <left_val>3.5462468862533569e-001</left_val>
            <right_val>-4.3035569787025452e-001</right_val></_></_></trees>
      <stage_threshold>-1.2122119665145874e+000</stage_threshold>
      <parent>5</parent>
      <next>-1</next></_>
    <_>
      <!-- stage 7 -->
      <trees>
        <_>
          <!-- tree 0 -->
          <_>
            <!-- root node -->
            <feature>
              <rects>
                <_>
                  4 9 2 3 -1.</_>
                <_>
                  4 10 2 1 3.</_></rects>
              <tilted>0</tilted></feature>
            <threshold>8.5303690284490585e-003</threshold>
            <left_val>-2.7869731187820435e-001</left_val>
            <right_val>7.4398332834243774e-001</right_val></_></_>
        <_>
          <!-- tree 1 -->
          <_>
            <!-- root node -->
            <feature>
              <rects>
                <_>
                  4 5 2 4 -1.</_>
                <_>
                  5 5 1 4 2.</_></rects>
              <tilted>0</tilted></feature>
            <threshold>-8.3015451673418283e-004</threshold>
            <left_val>-4.1998049616813660e-001</left_val>
            <right_val>3.4807288646697998e-001</right_val></_></_>
        <_>
          <!-- tree 2 -->
          <_>
            <!-- root node -->
            <feature>
              <rects>
                <_>
                  5 5 2 1 -1.</_>
                <_>
                  5 5 1 1 2.</_></rects>
              <tilted>1</tilted></feature>
            <threshold>-1.6716639511287212e-003</threshold>
            <left_val>-7.5168412923812866e-001</left_val>
            <right_val>2.3172399401664734e-001</right_val></_></_>
        <_>
          <!-- tree 3 -->
          <_>
            <!-- root node -->
            <feature>
              <rects>
                <_>
                  6 11 3 1 -1.</_>
                <_>
                  7 11 1 1 3.</_></rects>
              <tilted>0</tilted></feature>
            <threshold>-7.8883823007345200e-003</threshold>
            <left_val>6.9263172149658203e-001</left_val>
            <right_val>-2.0838630199432373e-001</right_val></_></_>
        <_>
          <!-- tree 4 -->
          <_>
            <!-- root node -->
            <feature>
              <rects>
                <_>
                  5 10 2 2 -1.</_>
                <_>
                  5 10 1 1 2.</_>
                <_>
                  6 11 1 1 2.</_></rects>
              <tilted>0</tilted></feature>
            <threshold>-4.1093830950558186e-003</threshold>
            <left_val>6.2038958072662354e-001</left_val>
            <right_val>-2.4373130500316620e-001</right_val></_></_>
        <_>
          <!-- tree 5 -->
          <_>
            <!-- root node -->
            <feature>
              <rects>
                <_>
                  8 3 3 2 -1.</_>
                <_>
                  8 3 3 1 2.</_></rects>
              <tilted>1</tilted></feature>
            <threshold>1.0223269928246737e-003</threshold>
            <left_val>3.8033270835876465e-001</left_val>
            <right_val>-2.8752350807189941e-001</right_val></_></_>
        <_>
          <!-- tree 6 -->
          <_>
            <!-- root node -->
            <feature>
              <rects>
                <_>
                  5 5 2 8 -1.</_>
                <_>
                  6 5 1 8 2.</_></rects>
              <tilted>0</tilted></feature>
            <threshold>3.4932509064674377e-002</threshold>
            <left_val>1.9653449952602386e-001</left_val>
            <right_val>-6.8588638305664063e-001</right_val></_></_>
        <_>
          <!-- tree 7 -->
          <_>
            <!-- root node -->
            <feature>
              <rects>
                <_>
                  5 11 3 1 -1.</_>
                <_>
                  6 11 1 1 3.</_></rects>
              <tilted>0</tilted></feature>
            <threshold>4.9646338447928429e-003</threshold>
            <left_val>-2.4682229757308960e-001</left_val>
            <right_val>5.3068947792053223e-001</right_val></_></_>
        <_>
          <!-- tree 8 -->
          <_>
            <!-- root node -->
            <feature>
              <rects>
                <_>
                  6 11 2 2 -1.</_>
                <_>
                  6 11 1 1 2.</_>
                <_>
                  7 12 1 1 2.</_></rects>
              <tilted>0</tilted></feature>
            <threshold>-3.5705729387700558e-003</threshold>
            <left_val>5.7651889324188232e-001</left_val>
            <right_val>-2.0289640128612518e-001</right_val></_></_>
        <_>
          <!-- tree 9 -->
          <_>
            <!-- root node -->
            <feature>
              <rects>
                <_>
                  10 12 2 2 -1.</_>
                <_>
                  11 12 1 2 2.</_></rects>
              <tilted>0</tilted></feature>
            <threshold>6.3880498055368662e-004</threshold>
            <left_val>3.4065040946006775e-001</left_val>
            <right_val>-3.7899911403656006e-001</right_val></_></_>
        <_>
          <!-- tree 10 -->
          <_>
            <!-- root node -->
            <feature>
              <rects>
                <_>
                  6 10 2 2 -1.</_>
                <_>
                  6 10 1 1 2.</_>
                <_>
                  7 11 1 1 2.</_></rects>
              <tilted>0</tilted></feature>
            <threshold>4.0836702100932598e-003</threshold>
            <left_val>-1.9297829270362854e-001</left_val>
            <right_val>6.5159791707992554e-001</right_val></_></_>
        <_>
          <!-- tree 11 -->
          <_>
            <!-- root node -->
            <feature>
              <rects>
                <_>
                  10 4 2 4 -1.</_>
                <_>
                  10 4 1 2 2.</_>
                <_>
                  11 6 1 2 2.</_></rects>
              <tilted>0</tilted></feature>
            <threshold>-9.1253477148711681e-004</threshold>
            <left_val>-4.3415939807891846e-001</left_val>
            <right_val>2.8003960847854614e-001</right_val></_></_>
        <_>
          <!-- tree 12 -->
          <_>
            <!-- root node -->
            <feature>
              <rects>
                <_>
                  7 10 2 2 -1.</_>
                <_>
                  7 10 1 1 2.</_>
                <_>
                  8 11 1 1 2.</_></rects>
              <tilted>0</tilted></feature>
            <threshold>3.5954010672867298e-003</threshold>
            <left_val>-2.0961630344390869e-001</left_val>
            <right_val>6.2660187482833862e-001</right_val></_></_>
        <_>
          <!-- tree 13 -->
          <_>
            <!-- root node -->
            <feature>
              <rects>
                <_>
                  6 11 2 2 -1.</_>
                <_>
                  6 11 1 1 2.</_>
                <_>
                  7 12 1 1 2.</_></rects>
              <tilted>0</tilted></feature>
            <threshold>4.2420029640197754e-003</threshold>
            <left_val>-1.5859450399875641e-001</left_val>
            <right_val>7.4789559841156006e-001</right_val></_></_>
        <_>
          <!-- tree 14 -->
          <_>
            <!-- root node -->
            <feature>
              <rects>
                <_>
                  3 7 6 1 -1.</_>
                <_>
                  5 9 2 1 3.</_></rects>
              <tilted>1</tilted></feature>
            <threshold>-4.8529639840126038e-002</threshold>
            <left_val>-7.4782407283782959e-001</left_val>
            <right_val>2.0806770026683807e-001</right_val></_></_>
        <_>
          <!-- tree 15 -->
          <_>
            <!-- root node -->
            <feature>
              <rects>
                <_>
                  0 0 1 4 -1.</_>
                <_>
                  0 1 1 2 2.</_></rects>
              <tilted>0</tilted></feature>
            <threshold>3.9647539961151779e-004</threshold>
            <left_val>2.3120880126953125e-001</left_val>
            <right_val>-4.7626128792762756e-001</right_val></_></_></trees>
      <stage_threshold>-1.5882600545883179e+000</stage_threshold>
      <parent>6</parent>
      <next>-1</next></_>
    <_>
      <!-- stage 8 -->
      <trees>
        <_>
          <!-- tree 0 -->
          <_>
            <!-- root node -->
            <feature>
              <rects>
                <_>
                  4 6 1 2 -1.</_>
                <_>
                  4 7 1 1 2.</_></rects>
              <tilted>0</tilted></feature>
            <threshold>-1.3067349791526794e-003</threshold>
            <left_val>-6.2928587198257446e-001</left_val>
            <right_val>3.0096879601478577e-001</right_val></_></_>
        <_>
          <!-- tree 1 -->
          <_>
            <!-- root node -->
            <feature>
              <rects>
                <_>
                  3 6 2 2 -1.</_>
                <_>
                  3 7 2 1 2.</_></rects>
              <tilted>0</tilted></feature>
            <threshold>2.1291100420057774e-003</threshold>
            <left_val>2.3473200201988220e-001</left_val>
            <right_val>-7.8333938121795654e-001</right_val></_></_>
        <_>
          <!-- tree 2 -->
          <_>
            <!-- root node -->
            <feature>
              <rects>
                <_>
                  0 1 12 15 -1.</_>
                <_>
                  0 6 12 5 3.</_></rects>
              <tilted>0</tilted></feature>
            <threshold>-6.7477768659591675e-001</threshold>
            <left_val>-8.0341160297393799e-001</left_val>
            <right_val>1.5367969870567322e-001</right_val></_></_>
        <_>
          <!-- tree 3 -->
          <_>
            <!-- root node -->
            <feature>
              <rects>
                <_>
                  3 6 1 3 -1.</_>
                <_>
                  3 7 1 1 3.</_></rects>
              <tilted>0</tilted></feature>
            <threshold>-9.3086721608415246e-004</threshold>
            <left_val>-5.5121511220932007e-001</left_val>
            <right_val>2.4805340170860291e-001</right_val></_></_>
        <_>
          <!-- tree 4 -->
          <_>
            <!-- root node -->
            <feature>
              <rects>
                <_>
                  4 10 8 1 -1.</_>
                <_>
                  8 10 4 1 2.</_></rects>
              <tilted>0</tilted></feature>
            <threshold>-1.0793459601700306e-002</threshold>
            <left_val>6.1272448301315308e-001</left_val>
            <right_val>-2.3089949786663055e-001</right_val></_></_>
        <_>
          <!-- tree 5 -->
          <_>
            <!-- root node -->
            <feature>
              <rects>
                <_>
                  9 0 3 6 -1.</_>
                <_>
                  9 3 3 3 2.</_></rects>
              <tilted>0</tilted></feature>
            <threshold>-2.6582370046526194e-003</threshold>
            <left_val>-4.1343930363655090e-001</left_val>
            <right_val>2.9607468843460083e-001</right_val></_></_>
        <_>
          <!-- tree 6 -->
          <_>
            <!-- root node -->
            <feature>
              <rects>
                <_>
                  2 1 2 9 -1.</_>
                <_>
                  3 1 1 9 2.</_></rects>
              <tilted>0</tilted></feature>
            <threshold>-4.3591041117906570e-002</threshold>
            <left_val>6.3510221242904663e-001</left_val>
            <right_val>-1.9429029524326324e-001</right_val></_></_>
        <_>
          <!-- tree 7 -->
          <_>
            <!-- root node -->
            <feature>
              <rects>
                <_>
                  3 2 2 4 -1.</_>
                <_>
                  3 2 1 2 2.</_>
                <_>
                  4 4 1 2 2.</_></rects>
              <tilted>0</tilted></feature>
            <threshold>-1.0034750215709209e-002</threshold>
            <left_val>6.2048661708831787e-001</left_val>
            <right_val>-2.2617439925670624e-001</right_val></_></_>
        <_>
          <!-- tree 8 -->
          <_>
            <!-- root node -->
            <feature>
              <rects>
                <_>
                  8 1 3 3 -1.</_>
                <_>
                  9 2 1 1 9.</_></rects>
              <tilted>0</tilted></feature>
            <threshold>2.5518400594592094e-002</threshold>
            <left_val>-1.3196879625320435e-001</left_val>
            <right_val>8.2718032598495483e-001</right_val></_></_>
        <_>
          <!-- tree 9 -->
          <_>
            <!-- root node -->
            <feature>
              <rects>
                <_>
                  9 12 1 4 -1.</_>
                <_>
                  9 14 1 2 2.</_></rects>
              <tilted>0</tilted></feature>
            <threshold>4.6791101340204477e-004</threshold>
            <left_val>3.8433128595352173e-001</left_val>
            <right_val>-3.5326901078224182e-001</right_val></_></_>
        <_>
          <!-- tree 10 -->
          <_>
            <!-- root node -->
            <feature>
              <rects>
                <_>
                  1 10 3 3 -1.</_>
                <_>
                  2 11 1 1 9.</_></rects>
              <tilted>0</tilted></feature>
            <threshold>1.6661159694194794e-002</threshold>
            <left_val>-2.0957720279693604e-001</left_val>
            <right_val>5.3484058380126953e-001</right_val></_></_>
        <_>
          <!-- tree 11 -->
          <_>
            <!-- root node -->
            <feature>
              <rects>
                <_>
                  3 6 1 3 -1.</_>
                <_>
                  3 7 1 1 3.</_></rects>
              <tilted>0</tilted></feature>
            <threshold>1.0421320330351591e-003</threshold>
            <left_val>2.1756690740585327e-001</left_val>
            <right_val>-5.8457928895950317e-001</right_val></_></_>
        <_>
          <!-- tree 12 -->
          <_>
            <!-- root node -->
            <feature>
              <rects>
                <_>
                  3 3 8 3 -1.</_>
                <_>
                  7 3 4 3 2.</_></rects>
              <tilted>0</tilted></feature>
            <threshold>-7.4497931636869907e-003</threshold>
            <left_val>5.6512159109115601e-001</left_val>
            <right_val>-2.0501509308815002e-001</right_val></_></_>
        <_>
          <!-- tree 13 -->
          <_>
            <!-- root node -->
            <feature>
              <rects>
                <_>
                  6 12 2 2 -1.</_>
                <_>
                  6 12 1 1 2.</_>
                <_>
                  7 13 1 1 2.</_></rects>
              <tilted>0</tilted></feature>
            <threshold>3.6585459019988775e-003</threshold>
            <left_val>-2.0488169789314270e-001</left_val>
            <right_val>6.0131412744522095e-001</right_val></_></_>
        <_>
          <!-- tree 14 -->
          <_>
            <!-- root node -->
            <feature>
              <rects>
                <_>
                  6 3 4 3 -1.</_>
                <_>
                  5 4 4 1 3.</_></rects>
              <tilted>1</tilted></feature>
            <threshold>-8.4280058741569519e-002</threshold>
            <left_val>7.3771148920059204e-001</left_val>
            <right_val>-1.8965570628643036e-001</right_val></_></_></trees>
      <stage_threshold>-1.3247610330581665e+000</stage_threshold>
      <parent>7</parent>
      <next>-1</next></_>
    <_>
      <!-- stage 9 -->
      <trees>
        <_>
          <!-- tree 0 -->
          <_>
            <!-- root node -->
            <feature>
              <rects>
                <_>
                  2 5 4 2 -1.</_>
                <_>
                  2 5 2 1 2.</_>
                <_>
                  4 6 2 1 2.</_></rects>
              <tilted>0</tilted></feature>
            <threshold>-5.4311280109686777e-005</threshold>
            <left_val>2.9451391100883484e-001</left_val>
            <right_val>-5.8405607938766479e-001</right_val></_></_>
        <_>
          <!-- tree 1 -->
          <_>
            <!-- root node -->
            <feature>
              <rects>
                <_>
                  5 5 2 1 -1.</_>
                <_>
                  5 5 1 1 2.</_></rects>
              <tilted>1</tilted></feature>
            <threshold>4.9678902141749859e-003</threshold>
            <left_val>3.0089488625526428e-001</left_val>
            <right_val>-5.1603090763092041e-001</right_val></_></_>
        <_>
          <!-- tree 2 -->
          <_>
            <!-- root node -->
            <feature>
              <rects>
                <_>
                  5 4 2 1 -1.</_>
                <_>
                  5 4 1 1 2.</_></rects>
              <tilted>1</tilted></feature>
            <threshold>-3.8265620823949575e-003</threshold>
            <left_val>-8.1955528259277344e-001</left_val>
            <right_val>2.0423449575901031e-001</right_val></_></_>
        <_>
          <!-- tree 3 -->
          <_>
            <!-- root node -->
            <feature>
              <rects>
                <_>
                  4 4 1 3 -1.</_>
                <_>
                  4 5 1 1 3.</_></rects>
              <tilted>0</tilted></feature>
            <threshold>-4.5903740101493895e-005</threshold>
            <left_val>2.8351500630378723e-001</left_val>
            <right_val>-3.8600680232048035e-001</right_val></_></_>
        <_>
          <!-- tree 4 -->
          <_>
            <!-- root node -->
            <feature>
              <rects>
                <_>
                  6 5 2 1 -1.</_>
                <_>
                  6 5 1 1 2.</_></rects>
              <tilted>1</tilted></feature>
            <threshold>-3.5045589320361614e-003</threshold>
            <left_val>-4.8049530386924744e-001</left_val>
            <right_val>2.2686670720577240e-001</right_val></_></_>
        <_>
          <!-- tree 5 -->
          <_>
            <!-- root node -->
            <feature>
              <rects>
                <_>
                  5 4 2 6 -1.</_>
                <_>
                  6 4 1 6 2.</_></rects>
              <tilted>0</tilted></feature>
            <threshold>5.1443708798615262e-005</threshold>
            <left_val>-6.1877059936523438e-001</left_val>
            <right_val>1.9670949876308441e-001</right_val></_></_>
        <_>
          <!-- tree 6 -->
          <_>
            <!-- root node -->
            <feature>
              <rects>
                <_>
                  1 3 4 2 -1.</_>
                <_>
                  2 3 2 2 2.</_></rects>
              <tilted>0</tilted></feature>
            <threshold>7.6529039070010185e-003</threshold>
            <left_val>-2.8691220283508301e-001</left_val>
            <right_val>3.7461170554161072e-001</right_val></_></_>
        <_>
          <!-- tree 7 -->
          <_>
            <!-- root node -->
            <feature>
              <rects>
                <_>
                  6 10 2 2 -1.</_>
                <_>
                  6 10 1 1 2.</_>
                <_>
                  7 11 1 1 2.</_></rects>
              <tilted>0</tilted></feature>
            <threshold>1.3710550265386701e-003</threshold>
            <left_val>-2.4137449264526367e-001</left_val>
            <right_val>4.9602058529853821e-001</right_val></_></_>
        <_>
          <!-- tree 8 -->
          <_>
            <!-- root node -->
            <feature>
              <rects>
                <_>
                  7 10 1 2 -1.</_>
                <_>
                  7 11 1 1 2.</_></rects>
              <tilted>0</tilted></feature>
            <threshold>-5.5117288866313174e-005</threshold>
            <left_val>3.6183869838714600e-001</left_val>
            <right_val>-3.2784691452980042e-001</right_val></_></_>
        <_>
          <!-- tree 9 -->
          <_>
            <!-- root node -->
            <feature>
              <rects>
                <_>
                  1 3 3 4 -1.</_>
                <_>
                  2 3 1 4 3.</_></rects>
              <tilted>0</tilted></feature>
            <threshold>-1.8886780366301537e-002</threshold>
            <left_val>6.4635360240936279e-001</left_val>
            <right_val>-1.6403800249099731e-001</right_val></_></_>
        <_>
          <!-- tree 10 -->
          <_>
            <!-- root node -->
            <feature>
              <rects>
                <_>
                  2 6 3 7 -1.</_>
                <_>
                  3 6 1 7 3.</_></rects>
              <tilted>0</tilted></feature>
            <threshold>-2.9325110837817192e-002</threshold>
            <left_val>5.4679840803146362e-001</left_val>
            <right_val>-2.0227479934692383e-001</right_val></_></_>
        <_>
          <!-- tree 11 -->
          <_>
            <!-- root node -->
            <feature>
              <rects>
                <_>
                  2 1 6 10 -1.</_>
                <_>
                  5 1 3 10 2.</_></rects>
              <tilted>0</tilted></feature>
            <threshold>3.8208451122045517e-002</threshold>
            <left_val>2.4943399429321289e-001</left_val>
            <right_val>-5.2205711603164673e-001</right_val></_></_>
        <_>
          <!-- tree 12 -->
          <_>
            <!-- root node -->
            <feature>
              <rects>
                <_>
                  3 10 3 1 -1.</_>
                <_>
                  4 10 1 1 3.</_></rects>
              <tilted>0</tilted></feature>
            <threshold>-6.7069400101900101e-003</threshold>
            <left_val>6.0229802131652832e-001</left_val>
            <right_val>-1.8594120442867279e-001</right_val></_></_>
        <_>
          <!-- tree 13 -->
          <_>
            <!-- root node -->
            <feature>
              <rects>
                <_>
                  7 0 5 3 -1.</_>
                <_>
                  7 1 5 1 3.</_></rects>
              <tilted>0</tilted></feature>
            <threshold>4.7789551317691803e-003</threshold>
            <left_val>2.3696629703044891e-001</left_val>
            <right_val>-4.8376768827438354e-001</right_val></_></_>
        <_>
          <!-- tree 14 -->
          <_>
            <!-- root node -->
            <feature>
              <rects>
                <_>
                  7 12 2 2 -1.</_>
                <_>
                  7 12 1 1 2.</_>
                <_>
                  8 13 1 1 2.</_></rects>
              <tilted>0</tilted></feature>
            <threshold>1.0408370144432411e-004</threshold>
            <left_val>-2.3084689676761627e-001</left_val>
            <right_val>4.1975811123847961e-001</right_val></_></_>
        <_>
          <!-- tree 15 -->
          <_>
            <!-- root node -->
            <feature>
              <rects>
                <_>
                  6 3 2 11 -1.</_>
                <_>
                  7 3 1 11 2.</_></rects>
              <tilted>0</tilted></feature>
            <threshold>5.4097108659334481e-005</threshold>
            <left_val>-5.2025049924850464e-001</left_val>
            <right_val>2.1828889846801758e-001</right_val></_></_>
        <_>
          <!-- tree 16 -->
          <_>
            <!-- root node -->
            <feature>
              <rects>
                <_>
                  11 5 1 3 -1.</_>
                <_>
                  11 6 1 1 3.</_></rects>
              <tilted>0</tilted></feature>
            <threshold>5.0941412337124348e-004</threshold>
            <left_val>2.3943769931793213e-001</left_val>
            <right_val>-4.0993109345436096e-001</right_val></_></_>
        <_>
          <!-- tree 17 -->
          <_>
            <!-- root node -->
            <feature>
              <rects>
                <_>
                  8 7 2 3 -1.</_>
                <_>
                  8 8 2 1 3.</_></rects>
              <tilted>0</tilted></feature>
            <threshold>1.3184820301830769e-002</threshold>
            <left_val>-1.4679659903049469e-001</left_val>
            <right_val>7.0656090974807739e-001</right_val></_></_></trees>
      <stage_threshold>-1.0818560123443604e+000</stage_threshold>
      <parent>8</parent>
      <next>-1</next></_>
    <_>
      <!-- stage 10 -->
      <trees>
        <_>
          <!-- tree 0 -->
          <_>
            <!-- root node -->
            <feature>
              <rects>
                <_>
                  4 5 2 1 -1.</_>
                <_>
                  5 5 1 1 2.</_></rects>
              <tilted>0</tilted></feature>
            <threshold>5.4934280342422426e-005</threshold>
            <left_val>-4.6826028823852539e-001</left_val>
            <right_val>5.4644042253494263e-001</right_val></_></_>
        <_>
          <!-- tree 1 -->
          <_>
            <!-- root node -->
            <feature>
              <rects>
                <_>
                  3 9 1 2 -1.</_>
                <_>
                  3 10 1 1 2.</_></rects>
              <tilted>0</tilted></feature>
            <threshold>5.0276270485483110e-005</threshold>
            <left_val>-4.5297899842262268e-001</left_val>
            <right_val>4.9418708682060242e-001</right_val></_></_>
        <_>
          <!-- tree 2 -->
          <_>
            <!-- root node -->
            <feature>
              <rects>
                <_>
                  4 7 3 1 -1.</_>
                <_>
                  5 7 1 1 3.</_></rects>
              <tilted>0</tilted></feature>
            <threshold>-5.1529441407183185e-005</threshold>
            <left_val>2.6335370540618896e-001</left_val>
            <right_val>-7.1230119466781616e-001</right_val></_></_>
        <_>
          <!-- tree 3 -->
          <_>
            <!-- root node -->
            <feature>
              <rects>
                <_>
                  5 5 2 2 -1.</_>
                <_>
                  5 5 1 1 2.</_>
                <_>
                  6 6 1 1 2.</_></rects>
              <tilted>0</tilted></feature>
            <threshold>-2.6266998611390591e-004</threshold>
            <left_val>5.3024858236312866e-001</left_val>
            <right_val>-4.1997841000556946e-001</right_val></_></_>
        <_>
          <!-- tree 4 -->
          <_>
            <!-- root node -->
            <feature>
              <rects>
                <_>
                  1 9 2 1 -1.</_>
                <_>
                  2 9 1 1 2.</_></rects>
              <tilted>0</tilted></feature>
            <threshold>4.3655330955516547e-005</threshold>
            <left_val>-3.7274599075317383e-001</left_val>
            <right_val>4.5593750476837158e-001</right_val></_></_>
        <_>
          <!-- tree 5 -->
          <_>
            <!-- root node -->
            <feature>
              <rects>
                <_>
                  7 12 1 2 -1.</_>
                <_>
                  7 13 1 1 2.</_></rects>
              <tilted>0</tilted></feature>
            <threshold>5.5776868975954130e-005</threshold>
            <left_val>-3.5877659916877747e-001</left_val>
            <right_val>5.0528448820114136e-001</right_val></_></_>
        <_>
          <!-- tree 6 -->
          <_>
            <!-- root node -->
            <feature>
              <rects>
                <_>
                  6 5 2 2 -1.</_>
                <_>
                  6 5 1 1 2.</_>
                <_>
                  7 6 1 1 2.</_></rects>
              <tilted>0</tilted></feature>
            <threshold>-3.3771019661799073e-004</threshold>
            <left_val>6.7509257793426514e-001</left_val>
            <right_val>-2.9857951402664185e-001</right_val></_></_>
        <_>
          <!-- tree 7 -->
          <_>
            <!-- root node -->
            <feature>
              <rects>
                <_>
                  4 5 2 2 -1.</_>
                <_>
                  4 5 1 1 2.</_>
                <_>
                  5 6 1 1 2.</_></rects>
              <tilted>0</tilted></feature>
            <threshold>-5.5776868975954130e-005</threshold>
            <left_val>4.5366480946540833e-001</left_val>
            <right_val>-4.4567939639091492e-001</right_val></_></_>
        <_>
          <!-- tree 8 -->
          <_>
            <!-- root node -->
            <feature>
              <rects>
                <_>
                  8 5 1 2 -1.</_>
                <_>
                  8 6 1 1 2.</_></rects>
              <tilted>0</tilted></feature>
            <threshold>3.9377999200951308e-005</threshold>
            <left_val>-3.1543758511543274e-001</left_val>
            <right_val>6.1048072576522827e-001</right_val></_></_>
        <_>
          <!-- tree 9 -->
          <_>
            <!-- root node -->
            <feature>
              <rects>
                <_>
                  4 10 4 3 -1.</_>
                <_>
                  4 11 4 1 3.</_></rects>
              <tilted>0</tilted></feature>
            <threshold>5.8347330195829272e-005</threshold>
            <left_val>-4.5564618706703186e-001</left_val>
            <right_val>4.3776589632034302e-001</right_val></_></_>
        <_>
          <!-- tree 10 -->
          <_>
            <!-- root node -->
            <feature>
              <rects>
                <_>
                  8 7 1 2 -1.</_>
                <_>
                  8 8 1 1 2.</_></rects>
              <tilted>0</tilted></feature>
            <threshold>1.6653520287945867e-004</threshold>
            <left_val>-3.8295030593872070e-001</left_val>
            <right_val>5.7311439514160156e-001</right_val></_></_></trees>
      <stage_threshold>-1.0822219848632812e+000</stage_threshold>
      <parent>9</parent>
      <next>-1</next></_>
    <_>
      <!-- stage 11 -->
      <trees>
        <_>
          <!-- tree 0 -->
          <_>
            <!-- root node -->
            <feature>
              <rects>
                <_>
                  4 4 2 5 -1.</_>
                <_>
                  5 4 1 5 2.</_></rects>
              <tilted>0</tilted></feature>
            <threshold>4.0073590935207903e-004</threshold>
            <left_val>-4.4984188675880432e-001</left_val>
            <right_val>3.2895770668983459e-001</right_val></_></_>
        <_>
          <!-- tree 1 -->
          <_>
            <!-- root node -->
            <feature>
              <rects>
                <_>
                  5 3 6 3 -1.</_>
                <_>
                  7 5 2 3 3.</_></rects>
              <tilted>1</tilted></feature>
            <threshold>-5.4027639329433441e-002</threshold>
            <left_val>2.2869080305099487e-001</left_val>
            <right_val>-6.7351472377777100e-001</right_val></_></_>
        <_>
          <!-- tree 2 -->
          <_>
            <!-- root node -->
            <feature>
              <rects>
                <_>
                  1 3 4 7 -1.</_>
                <_>
                  2 3 2 7 2.</_></rects>
              <tilted>0</tilted></feature>
            <threshold>6.6186621785163879e-002</threshold>
            <left_val>-2.0762470364570618e-001</left_val>
            <right_val>5.4679578542709351e-001</right_val></_></_>
        <_>
          <!-- tree 3 -->
          <_>
            <!-- root node -->
            <feature>
              <rects>
                <_>
                  8 0 4 8 -1.</_>
                <_>
                  6 2 4 4 2.</_></rects>
              <tilted>1</tilted></feature>
            <threshold>-1.2121199630200863e-002</threshold>
            <left_val>2.0417520403862000e-001</left_val>
            <right_val>-5.4295831918716431e-001</right_val></_></_>
        <_>
          <!-- tree 4 -->
          <_>
            <!-- root node -->
            <feature>
              <rects>
                <_>
                  3 4 2 6 -1.</_>
                <_>
                  4 4 1 6 2.</_></rects>
              <tilted>0</tilted></feature>
            <threshold>5.6975998450070620e-004</threshold>
            <left_val>-3.3178439736366272e-001</left_val>
            <right_val>4.9583569169044495e-001</right_val></_></_>
        <_>
          <!-- tree 5 -->
          <_>
            <!-- root node -->
            <feature>
              <rects>
                <_>
                  5 6 2 2 -1.</_>
                <_>
                  5 6 2 1 2.</_></rects>
              <tilted>1</tilted></feature>
            <threshold>-1.1082390323281288e-002</threshold>
            <left_val>2.8166469931602478e-001</left_val>
            <right_val>-5.2588278055191040e-001</right_val></_></_>
        <_>
          <!-- tree 6 -->
          <_>
            <!-- root node -->
            <feature>
              <rects>
                <_>
                  5 3 2 6 -1.</_>
                <_>
                  5 5 2 2 3.</_></rects>
              <tilted>0</tilted></feature>
            <threshold>2.8484500944614410e-003</threshold>
            <left_val>-2.3781609535217285e-001</left_val>
            <right_val>4.4336810708045959e-001</right_val></_></_>
        <_>
          <!-- tree 7 -->
          <_>
            <!-- root node -->
            <feature>
              <rects>
                <_>
                  6 3 5 3 -1.</_>
                <_>
                  5 4 5 1 3.</_></rects>
              <tilted>1</tilted></feature>
            <threshold>-5.8056131005287170e-002</threshold>
            <left_val>5.5277621746063232e-001</left_val>
            <right_val>-2.7281320095062256e-001</right_val></_></_>
        <_>
          <!-- tree 8 -->
          <_>
            <!-- root node -->
            <feature>
              <rects>
                <_>
                  1 3 3 10 -1.</_>
                <_>
                  2 3 1 10 3.</_></rects>
              <tilted>0</tilted></feature>
            <threshold>6.7484498023986816e-002</threshold>
            <left_val>-2.3005419969558716e-001</left_val>
            <right_val>6.2914258241653442e-001</right_val></_></_>
        <_>
          <!-- tree 9 -->
          <_>
            <!-- root node -->
            <feature>
              <rects>
                <_>
                  3 5 2 6 -1.</_>
                <_>
                  3 7 2 2 3.</_></rects>
              <tilted>0</tilted></feature>
            <threshold>-9.8134572908747941e-005</threshold>
            <left_val>2.1911840140819550e-001</left_val>
            <right_val>-6.2594461441040039e-001</right_val></_></_>
        <_>
          <!-- tree 10 -->
          <_>
            <!-- root node -->
            <feature>
              <rects>
                <_>
                  2 5 3 7 -1.</_>
                <_>
                  3 5 1 7 3.</_></rects>
              <tilted>0</tilted></feature>
            <threshold>6.3415907323360443e-002</threshold>
            <left_val>-2.2602650523185730e-001</left_val>
            <right_val>7.4629300832748413e-001</right_val></_></_>
        <_>
          <!-- tree 11 -->
          <_>
            <!-- root node -->
            <feature>
              <rects>
                <_>
                  7 4 2 8 -1.</_>
                <_>
                  8 4 1 8 2.</_></rects>
              <tilted>0</tilted></feature>
            <threshold>-1.7646020278334618e-003</threshold>
            <left_val>5.0589531660079956e-001</left_val>
            <right_val>-3.6657908558845520e-001</right_val></_></_>
        <_>
          <!-- tree 12 -->
          <_>
            <!-- root node -->
            <feature>
              <rects>
                <_>
                  4 2 8 3 -1.</_>
                <_>
                  6 4 4 3 2.</_></rects>
              <tilted>1</tilted></feature>
            <threshold>-1.6452059149742126e-002</threshold>
            <left_val>2.7755549550056458e-001</left_val>
            <right_val>-6.3313877582550049e-001</right_val></_></_>
        <_>
          <!-- tree 13 -->
          <_>
            <!-- root node -->
            <feature>
              <rects>
                <_>
                  8 15 3 1 -1.</_>
                <_>
                  9 15 1 1 3.</_></rects>
              <tilted>0</tilted></feature>
            <threshold>-1.4131739735603333e-003</threshold>
            <left_val>-5.8657431602478027e-001</left_val>
            <right_val>1.6823589801788330e-001</right_val></_></_>
        <_>
          <!-- tree 14 -->
          <_>
            <!-- root node -->
            <feature>
              <rects>
                <_>
                  1 8 4 3 -1.</_>
                <_>
                  1 9 4 1 3.</_></rects>
              <tilted>0</tilted></feature>
            <threshold>-2.0536980591714382e-003</threshold>
            <left_val>4.2323601245880127e-001</left_val>
            <right_val>-2.7200978994369507e-001</right_val></_></_>
        <_>
          <!-- tree 15 -->
          <_>
            <!-- root node -->
            <feature>
              <rects>
                <_>
                  1 7 4 2 -1.</_>
                <_>
                  3 7 2 2 2.</_></rects>
              <tilted>0</tilted></feature>
            <threshold>8.6793545633554459e-003</threshold>
            <left_val>-1.6061410307884216e-001</left_val>
            <right_val>7.7788078784942627e-001</right_val></_></_>
        <_>
          <!-- tree 16 -->
          <_>
            <!-- root node -->
            <feature>
              <rects>
                <_>
                  2 6 6 6 -1.</_>
                <_>
                  2 9 6 3 2.</_></rects>
              <tilted>0</tilted></feature>
            <threshold>1.4254789799451828e-002</threshold>
            <left_val>-6.7875689268112183e-001</left_val>
            <right_val>1.9377380609512329e-001</right_val></_></_>
        <_>
          <!-- tree 17 -->
          <_>
            <!-- root node -->
            <feature>
              <rects>
                <_>
                  5 2 6 4 -1.</_>
                <_>
                  7 4 2 4 3.</_></rects>
              <tilted>1</tilted></feature>
            <threshold>-2.5433261180296540e-004</threshold>
            <left_val>7.4060626327991486e-002</left_val>
            <right_val>-8.6187112331390381e-001</right_val></_></_>
        <_>
          <!-- tree 18 -->
          <_>
            <!-- root node -->
            <feature>
              <rects>
                <_>
                  4 8 7 2 -1.</_>
                <_>
                  4 9 7 1 2.</_></rects>
              <tilted>0</tilted></feature>
            <threshold>-2.5403709150850773e-003</threshold>
            <left_val>6.3408768177032471e-001</left_val>
            <right_val>-2.5478211045265198e-001</right_val></_></_>
        <_>
          <!-- tree 19 -->
          <_>
            <!-- root node -->
            <feature>
              <rects>
                <_>
                  7 11 3 2 -1.</_>
                <_>
                  8 11 1 2 3.</_></rects>
              <tilted>0</tilted></feature>
            <threshold>8.5684219375252724e-003</threshold>
            <left_val>-1.8527770042419434e-001</left_val>
            <right_val>5.3282868862152100e-001</right_val></_></_>
        <_>
          <!-- tree 20 -->
          <_>
            <!-- root node -->
            <feature>
              <rects>
                <_>
                  4 8 6 3 -1.</_>
                <_>
                  4 9 6 1 3.</_></rects>
              <tilted>0</tilted></feature>
            <threshold>1.4778899494558573e-003</threshold>
            <left_val>-4.0830689668655396e-001</left_val>
            <right_val>3.0454900860786438e-001</right_val></_></_>
        <_>
          <!-- tree 21 -->
          <_>
            <!-- root node -->
            <feature>
              <rects>
                <_>
                  4 2 2 4 -1.</_>
                <_>
                  4 3 2 2 2.</_></rects>
              <tilted>0</tilted></feature>
            <threshold>-1.5236380277201533e-003</threshold>
            <left_val>5.5236631631851196e-001</left_val>
            <right_val>-3.2914990186691284e-001</right_val></_></_>
        <_>
          <!-- tree 22 -->
          <_>
            <!-- root node -->
            <feature>
              <rects>
                <_>
                  5 2 2 2 -1.</_>
                <_>
                  5 2 1 1 2.</_>
                <_>
                  6 3 1 1 2.</_></rects>
              <tilted>0</tilted></feature>
            <threshold>-4.4048691052012146e-005</threshold>
            <left_val>4.5020699501037598e-001</left_val>
            <right_val>-3.1270828843116760e-001</right_val></_></_>
        <_>
          <!-- tree 23 -->
          <_>
            <!-- root node -->
            <feature>
              <rects>
                <_>
                  4 4 7 3 -1.</_>
                <_>
                  4 5 7 1 3.</_></rects>
              <tilted>0</tilted></feature>
            <threshold>7.1134178142528981e-005</threshold>
            <left_val>-3.1785380840301514e-001</left_val>
            <right_val>3.7484410405158997e-001</right_val></_></_>
        <_>
          <!-- tree 24 -->
          <_>
            <!-- root node -->
            <feature>
              <rects>
                <_>
                  9 1 3 8 -1.</_>
                <_>
                  7 3 3 4 2.</_></rects>
              <tilted>1</tilted></feature>
            <threshold>-1.2262259609997272e-002</threshold>
            <left_val>1.9489960372447968e-001</left_val>
            <right_val>-6.6312748193740845e-001</right_val></_></_>
        <_>
          <!-- tree 25 -->
          <_>
            <!-- root node -->
            <feature>
              <rects>
                <_>
                  0 0 1 2 -1.</_>
                <_>
                  0 1 1 1 2.</_></rects>
              <tilted>0</tilted></feature>
            <threshold>7.6636817539110780e-004</threshold>
            <left_val>1.8039889633655548e-001</left_val>
            <right_val>-7.1345388889312744e-001</right_val></_></_>
        <_>
          <!-- tree 26 -->
          <_>
            <!-- root node -->
            <feature>
              <rects>
                <_>
                  3 4 2 6 -1.</_>
                <_>
                  4 4 1 6 2.</_></rects>
              <tilted>0</tilted></feature>
            <threshold>6.6419648937880993e-003</threshold>
            <left_val>-2.2435219585895538e-001</left_val>
            <right_val>6.7784559726715088e-001</right_val></_></_></trees>
      <stage_threshold>-1.2660789489746094e+000</stage_threshold>
      <parent>10</parent>
      <next>-1</next></_>
    <_>
      <!-- stage 12 -->
      <trees>
        <_>
          <!-- tree 0 -->
          <_>
            <!-- root node -->
            <feature>
              <rects>
                <_>
                  4 4 2 6 -1.</_>
                <_>
                  5 4 1 6 2.</_></rects>
              <tilted>0</tilted></feature>
            <threshold>5.8165969676338136e-005</threshold>
            <left_val>-5.0028282403945923e-001</left_val>
            <right_val>4.3487069010734558e-001</right_val></_></_>
        <_>
          <!-- tree 1 -->
          <_>
            <!-- root node -->
            <feature>
              <rects>
                <_>
                  4 8 4 1 -1.</_>
                <_>
                  5 8 2 1 2.</_></rects>
              <tilted>0</tilted></feature>
            <threshold>-5.2078310545766726e-005</threshold>
            <left_val>2.4481199681758881e-001</left_val>
            <right_val>-7.5736427307128906e-001</right_val></_></_>
        <_>
          <!-- tree 2 -->
          <_>
            <!-- root node -->
            <feature>
              <rects>
                <_>
                  6 3 2 4 -1.</_>
                <_>
                  6 3 1 4 2.</_></rects>
              <tilted>1</tilted></feature>
            <threshold>1.5739620721433312e-004</threshold>
            <left_val>-6.7855459451675415e-001</left_val>
            <right_val>1.6997960209846497e-001</right_val></_></_>
        <_>
          <!-- tree 3 -->
          <_>
            <!-- root node -->
            <feature>
              <rects>
                <_>
                  5 4 2 6 -1.</_>
                <_>
                  6 4 1 6 2.</_></rects>
              <tilted>0</tilted></feature>
            <threshold>5.1443708798615262e-005</threshold>
            <left_val>-6.8024140596389771e-001</left_val>
            <right_val>1.7490449547767639e-001</right_val></_></_>
        <_>
          <!-- tree 4 -->
          <_>
            <!-- root node -->
            <feature>
              <rects>
                <_>
                  4 5 3 8 -1.</_>
                <_>
                  4 9 3 4 2.</_></rects>
              <tilted>0</tilted></feature>
            <threshold>7.2893397882580757e-003</threshold>
            <left_val>-8.0355089902877808e-001</left_val>
            <right_val>1.0596340149641037e-001</right_val></_></_>
        <_>
          <!-- tree 5 -->
          <_>
            <!-- root node -->
            <feature>
              <rects>
                <_>
                  4 10 3 2 -1.</_>
                <_>
                  5 10 1 2 3.</_></rects>
              <tilted>0</tilted></feature>
            <threshold>8.9865820482373238e-003</threshold>
            <left_val>-3.1957128643989563e-001</left_val>
            <right_val>5.0753897428512573e-001</right_val></_></_>
        <_>
          <!-- tree 6 -->
          <_>
            <!-- root node -->
            <feature>
              <rects>
                <_>
                  3 2 8 5 -1.</_>
                <_>
                  5 2 4 5 2.</_></rects>
              <tilted>0</tilted></feature>
            <threshold>-9.0790621470659971e-004</threshold>
            <left_val>3.0664399266242981e-001</left_val>
            <right_val>-5.4514527320861816e-001</right_val></_></_>
        <_>
          <!-- tree 7 -->
          <_>
            <!-- root node -->
            <feature>
              <rects>
                <_>
                  3 4 3 6 -1.</_>
                <_>
                  3 6 3 2 3.</_></rects>
              <tilted>0</tilted></feature>
            <threshold>-5.9963869862258434e-003</threshold>
            <left_val>2.3027719557285309e-001</left_val>
            <right_val>-6.5490019321441650e-001</right_val></_></_>
        <_>
          <!-- tree 8 -->
          <_>
            <!-- root node -->
            <feature>
              <rects>
                <_>
                  3 5 2 6 -1.</_>
                <_>
                  4 5 1 6 2.</_></rects>
              <tilted>0</tilted></feature>
            <threshold>9.2975591542199254e-004</threshold>
            <left_val>-2.7003160119056702e-001</left_val>
            <right_val>5.6924730539321899e-001</right_val></_></_>
        <_>
          <!-- tree 9 -->
          <_>
            <!-- root node -->
            <feature>
              <rects>
                <_>
                  3 8 4 1 -1.</_>
                <_>
                  4 8 2 1 2.</_></rects>
              <tilted>0</tilted></feature>
            <threshold>-1.1604050087044016e-004</threshold>
            <left_val>2.4674169719219208e-001</left_val>
            <right_val>-6.1179447174072266e-001</right_val></_></_>
        <_>
          <!-- tree 10 -->
          <_>
            <!-- root node -->
            <feature>
              <rects>
                <_>
                  7 8 2 5 -1.</_>
                <_>
                  8 8 1 5 2.</_></rects>
              <tilted>0</tilted></feature>
            <threshold>1.0188790038228035e-002</threshold>
            <left_val>-3.1990128755569458e-001</left_val>
            <right_val>4.4563889503479004e-001</right_val></_></_>
        <_>
          <!-- tree 11 -->
          <_>
            <!-- root node -->
            <feature>
              <rects>
                <_>
                  6 14 6 2 -1.</_>
                <_>
                  9 14 3 2 2.</_></rects>
              <tilted>0</tilted></feature>
            <threshold>5.8197911130264401e-005</threshold>
            <left_val>-3.9857628941535950e-001</left_val>
            <right_val>3.1788679957389832e-001</right_val></_></_>
        <_>
          <!-- tree 12 -->
          <_>
            <!-- root node -->
            <feature>
              <rects>
                <_>
                  5 4 6 5 -1.</_>
                <_>
                  8 4 3 5 2.</_></rects>
              <tilted>0</tilted></feature>
            <threshold>-2.1434880793094635e-002</threshold>
            <left_val>8.0352747440338135e-001</left_val>
            <right_val>-2.7088481187820435e-001</right_val></_></_>
        <_>
          <!-- tree 13 -->
          <_>
            <!-- root node -->
            <feature>
              <rects>
                <_>
                  4 4 6 3 -1.</_>
                <_>
                  6 6 2 3 3.</_></rects>
              <tilted>1</tilted></feature>
            <threshold>-1.6507899854332209e-003</threshold>
            <left_val>2.3458220064640045e-001</left_val>
            <right_val>-7.1814161539077759e-001</right_val></_></_>
        <_>
          <!-- tree 14 -->
          <_>
            <!-- root node -->
            <feature>
              <rects>
                <_>
                  5 10 1 2 -1.</_>
                <_>
                  5 11 1 1 2.</_></rects>
              <tilted>0</tilted></feature>
            <threshold>-2.1900311112403870e-003</threshold>
            <left_val>5.5373817682266235e-001</left_val>
            <right_val>-2.6192221045494080e-001</right_val></_></_>
        <_>
          <!-- tree 15 -->
          <_>
            <!-- root node -->
            <feature>
              <rects>
                <_>
                  2 9 4 3 -1.</_>
                <_>
                  2 10 4 1 3.</_></rects>
              <tilted>0</tilted></feature>
            <threshold>-7.1393200196325779e-003</threshold>
            <left_val>6.3804090023040771e-001</left_val>
            <right_val>-1.8370950222015381e-001</right_val></_></_>
        <_>
          <!-- tree 16 -->
          <_>
            <!-- root node -->
            <feature>
              <rects>
                <_>
                  6 9 2 2 -1.</_>
                <_>
                  6 9 1 1 2.</_>
                <_>
                  7 10 1 1 2.</_></rects>
              <tilted>0</tilted></feature>
            <threshold>-9.3625541776418686e-003</threshold>
            <left_val>8.2393181324005127e-001</left_val>
            <right_val>-8.7505280971527100e-002</right_val></_></_>
        <_>
          <!-- tree 17 -->
          <_>
            <!-- root node -->
            <feature>
              <rects>
                <_>
                  3 2 3 3 -1.</_>
                <_>
                  4 2 1 3 3.</_></rects>
              <tilted>0</tilted></feature>
            <threshold>5.4194348194869235e-005</threshold>
            <left_val>-2.4266889691352844e-001</left_val>
            <right_val>3.9022108912467957e-001</right_val></_></_>
        <_>
          <!-- tree 18 -->
          <_>
            <!-- root node -->
            <feature>
              <rects>
                <_>
                  9 0 3 9 -1.</_>
                <_>
                  6 3 3 3 3.</_></rects>
              <tilted>1</tilted></feature>
            <threshold>-5.4538320749998093e-002</threshold>
            <left_val>1.9919559359550476e-001</left_val>
            <right_val>-4.7331041097640991e-001</right_val></_></_>
        <_>
          <!-- tree 19 -->
          <_>
            <!-- root node -->
            <feature>
              <rects>
                <_>
                  7 4 4 3 -1.</_>
                <_>
                  7 4 2 3 2.</_></rects>
              <tilted>1</tilted></feature>
            <threshold>-1.1133430153131485e-001</threshold>
            <left_val>-8.0527311563491821e-001</left_val>
            <right_val>1.2991100549697876e-001</right_val></_></_>
        <_>
          <!-- tree 20 -->
          <_>
            <!-- root node -->
            <feature>
              <rects>
                <_>
                  7 3 3 7 -1.</_>
                <_>
                  8 3 1 7 3.</_></rects>
              <tilted>0</tilted></feature>
            <threshold>1.4384690439328551e-004</threshold>
            <left_val>-4.3237769603729248e-001</left_val>
            <right_val>2.2632740437984467e-001</right_val></_></_>
        <_>
          <!-- tree 21 -->
          <_>
            <!-- root node -->
            <feature>
              <rects>
                <_>
                  8 10 4 2 -1.</_>
                <_>
                  8 10 2 1 2.</_>
                <_>
                  10 11 2 1 2.</_></rects>
              <tilted>0</tilted></feature>
            <threshold>-5.4194348194869235e-005</threshold>
            <left_val>3.1291240453720093e-001</left_val>
            <right_val>-3.3830079436302185e-001</right_val></_></_>
        <_>
          <!-- tree 22 -->
          <_>
            <!-- root node -->
            <feature>
              <rects>
                <_>
                  1 7 7 9 -1.</_>
                <_>
                  1 10 7 3 3.</_></rects>
              <tilted>0</tilted></feature>
            <threshold>2.1641220152378082e-001</threshold>
            <left_val>1.2154140323400497e-001</left_val>
            <right_val>-8.2514047622680664e-001</right_val></_></_>
        <_>
          <!-- tree 23 -->
          <_>
            <!-- root node -->
            <feature>
              <rects>
                <_>
                  7 5 4 11 -1.</_>
                <_>
                  8 5 2 11 2.</_></rects>
              <tilted>0</tilted></feature>
            <threshold>7.1589976549148560e-002</threshold>
            <left_val>1.6185329854488373e-001</left_val>
            <right_val>-7.5468498468399048e-001</right_val></_></_></trees>
      <stage_threshold>-1.3049110174179077e+000</stage_threshold>
      <parent>11</parent>
      <next>-1</next></_>
    <_>
      <!-- stage 13 -->
      <trees>
        <_>
          <!-- tree 0 -->
          <_>
            <!-- root node -->
            <feature>
              <rects>
                <_>
                  5 5 2 1 -1.</_>
                <_>
                  5 5 1 1 2.</_></rects>
              <tilted>1</tilted></feature>
            <threshold>3.0538120772689581e-003</threshold>
